60
60
60
60
61
61
61
61
61
61
406
840
854
174
237
167
100
91
97
680
407
97
254
272
79
240
56
363
288
190
101
57
59
201
53
53
53
53
53
53
53
53
53
53
53
53
53
56
56
55
54
110
135
135
134
134
134
134
134
134
134
134
134
165
129
118
117
117
117
117
117
188
85
85
86
103
111
107
107
107
107
107
107
107
107
107
107
107
107
107
103
85
116
129
63
63
63
63
63
75
112
97
97
97
96
96
96
97
96
96
96
96
96
93
63
63
-8
-16
152
125
685
363
644
280
474
1324
312
28
100
10
15
1
-20
-26
-26
-13
-26
11
-14
2
-26
-30
-30
-30
-23
8
-18
111
278
656
193
494
-2
-3
189
315
48
1165
845
271
23
-19
82
169
84
96
-38
-32
-13
21
-36
-36
-35
-19
-31
-31
-9
16
117
852
272
-31
-12
-35
-15
-39
-35
-25
-35
-3
-9
30
-39
-39
-39
503
402
436
307
-41
-41
-29
65
334
74
203
50
540
-42
-8
257
341
1
49
-16
-15
227
-47
-48
-46
-50
-50
-50
-50
-50
-50
-33
-51
-52
-42
-1
128
-35
-53
-54
-54
-54
-54
-54
-42
-60
-60
-26
-26
-32
-9
-73
-73
-73
-73
-73
-73
-50
-80
-80
-81
-85
-85
-4
-111
-111
-111
-111
-111
-111
-54
-35
-33
-33
-33
-33
34
-56
-56
-49
-33
-23
-23
-22
-22
-22
-22
-22
-22
-22
-22
-22
-22
-22
-22
-22
-22
-22
-22
-22
-22
-36
-55
-56
-32
-41
-57
-8
-59
-13
-60
-60
-60
-85
-89
-14
-30
68
-53
165
35
-50
-143
-144
-58
-36
-17
13
-26
-40
-119
-134
-145
-145
-136
-110
-35
226
377
-36
-59
-135
-60
58
7
-149
-149
-149
-149
-149
-149
-149
-133
-149
-149
-120
-169
-171
-172
-172
-147
-144
-141
-82
-63
-58
-58
-58
-58
-58
-58
-58
-58
-58
-58
-58
-58
-58
-58
-58
-58
-58
-58
-58
-58
-58
-58
-58
-58
-58
